{"ens_weights": [0.11385079748154277, 0.038930252917686536, 0.6081805095712561, 0.06640212872180774, 0.1726363113077118], "intercepts": [-1.5512012567275675, -1.5570613910804971, -1.4142385501846206, -0.616381989758761, -0.6095952560521586], "coefs": [[0.37048889356855286, 0.7308070431791421, 2.333673211318028, 0.2427125666705313, 0.3702697747197795, 0.5789813784857318, -0.19385643445079598, -0.10337929364832746, -0.021800306966834073, -0.7080693887502542, -0.2792874862478641, -0.8237897251416941, -0.9034522443478414, 1.2216912673829858, 1.1998498475960635, -0.29770118816385066, -1.2421449643041873, -0.6344081572201314, -0.8950358176774175, -0.04969160210912986, 0.08384247584615481, 0.09253037791968462, 0.7520823705325481, -1.0170637128007387, -0.6220208454827904, -0.2848880928304454, -0.6185748425886097, -1.784071310636403, 0.5591501177437977, 0.5959449536306793, 0.23905086579725132, 0.5356767652325941, -0.03316877697916665, -0.23077918285228707, -0.04920769553343867, -0.7667875065498329, -1.1296841230128574, -0.06977866217923372, 0.6950359134014691], [0.3656486777095961, 0.7260134153536855, 2.3229935701289954, 0.23831354198213883, 0.369981617600329, 0.6324353109011392, -0.16883869231077758, -0.10387435400769078, -0.030386326958276633, -0.7195060756878642, -0.2536056581189093, -0.9132855948881301, -0.9225280540426397, 1.2117801595835263, 1.1400809453602694, -0.2186057721307541, -1.2465023286404495, -0.5745878211059976, -0.9466985201033389, -0.06016783416396892, 0.06108980874640389, 0.09231673714371955, 0.7312449476924221, -1.0203370701502847, -0.6259433713292876, -0.2697147881434626, -0.5770353860670002, -1.7722118343483848, 0.5496190902988558, 0.5931200532340268, 0.23755875720013783, 0.5342437909852595, -0.030844292176475312, -0.16846274615246107, -0.07954231644289853, -0.7488193057489414, -1.184775189186239, -0.02672802852300579, 0.6512661949778303], [0.3654016974940926, 0.7149879450895976, 2.288498385746786, 0.23128864376236824, 0.3609004463370772, 0.6658953032334253, -0.12560831303681888, -0.08128231833389422, -0.025268954098666464, -0.7065730602936894, -0.21386301903309743, -0.927538188615932, -0.9019219527739653, 1.1589392654739847, 1.074971224831062, -0.16274004920039184, -1.1840615349247545, -0.5187388495287214, -0.8806866540592675, -0.06176998616948488, 0.007915020974981249, 0.04746067520628322, 0.7003098695581528, -1.0527790115810252, -0.6684815652736101, -0.2858472951530456, -0.47511604627355974, -1.3510780071620578, 0.5328218497948144, 0.575012015868505, 0.20004371925602984, 0.49383453306630937, -0.07656432229621529, -0.31251407458098923, -0.1847927378326827, -0.6891733808734857, -1.1448959543777288, 0.06274887664035929, 0.8543887208351315], [0.1796067850346189, 0.42367738656676907, 0.8352122492745716, 0.15417902304144776, 0.10526592374559537, 0.18370566811051323, -0.0407933800064572, 0.07618364472936777, 0.17229083994137223, -0.4276243253934955, -0.15906213807767716, -0.4210822990607669, -0.18380839371639, 0.15014038127628676, -0.17850686633633742, -0.32247210710842944, -0.6250254222622146, -0.14548947404902104, 0.6887798924400131, 0.48683046392592333, -0.07775628547953677, -0.5974051470570328, 0.39875671671506097, -1.2070641759911256, -1.2652945253561891, -0.6733471371643078, -0.029696399958455282, 2.4127743244141215, 0.2945549402941142, -0.08926805716008157, 0.15268655808713297, 0.2813267621840502, -0.7034800272142768, 0.25847082242361885, -0.43277898802866954, -0.3873293654330941, -0.26883554899787215, 0.4711325161452313, -0.25704142586438566], [0.2417159438783612, 0.45573739847799627, 1.17750004848824, 0.17564572959400887, 0.1719771181227737, 0.38480461747475764, 0.04783681416674295, 0.0910153088836951, 0.17315535065326132, -0.4679810245761156, -0.054092347165185885, -0.7843339754982103, -0.4279414853363686, 0.009724503864278363, -0.04461665131762331, -0.10568297133584023, -0.5695673957674435, 0.08562091989318862, 0.4428678239385898, 0.3731343181021639, -0.18433144226039042, -0.5522743497856583, 0.3831909639280746, -1.2784300322633075, -1.1267438879884752, -0.5378614525344241, -0.05251041906299475, 2.494379724141253, 0.2598615950032126, -0.06316054996532679, 0.08201146578220889, 0.2641591469865639, -0.6710203361392053, 0.048137189240805206, -0.716164312583668, -0.23685135620676237, -0.6066278061568176, 0.8294878711274638, 0.07242315851660555]]}