{"ens_weights": [0.9941956578473469, 0.005804342152652632], "coefs": [[0.40353888770082774, 0.6875363568253925, 2.210637462327671, 0.21968416224383924, 0.36616638788635586, 0.7424340230495028, -0.022337756103476627, 0.025808688240477492, 0.07585701417647793, -0.5649973513537659, -0.13654336020642777, -0.8044876681509442, -0.8071024697808935, 1.1492668343709198, 1.1725887462172886, -0.060396959660182575, -1.0103490970013818, -0.42999584423961834, -0.6982776202622833, -0.016829995325700134, -0.09511031227124181, -0.020278799547547403, 0.6925614561127015, -1.1013233840138548, -0.6871712034367189, -0.28478458691692277, -0.2993962962386758, -0.6408066019572792, 0.5917158625926011, 0.6444435514971603, 0.18010713279491766, 0.4581243705491885, -0.10551760418503421, -0.5741787324210643, -0.1837649630316485, -0.49507372370448954, -0.870036641680479, 0.27131380030679103, 1.167473850176215], [0.3906625590697415, 0.6639926314101025, 0.9953075962871786, 0.20623340840469404, 0.44129317742454677, 0.6138584562583638, -0.26204689083016863, -0.06501957208620235, 0.16222777446052417, -0.4382726163877946, -0.29894357855813847, -1.0128320018907677, -0.768265492539172, 1.0583218937316363, 1.1049787977924865, -0.2705498268084754, -1.0013544685605995, -0.4154503574343254, -1.0087089752113882, -0.10402555918007078, -0.026407017407174993, 0.24236765842008126, 0.6781135707559014, -0.8648691151304461, -0.48193585937382705, -0.17315753755173516, -0.7786258466917447, -2.1425954815220436, 0.5256629982879504, 0.732953270212403, 0.41400173821853364, 0.5865742191670701, 0.09091453276756509, 1.1028622767934584, 0.4718412961547373, -0.4039353949547596, -0.5266804348088974, -0.016747312469740552, -1.9283688597403177]], "intercepts": [-0.6842664103706163, -1.301028429036131]}